{"mean": -0.001492223935201764, "std": 0.05780186504125595, "min": -0.4850684106349945, "max": 0.5466890931129456, "values": [-0.474750816822052, -0.45411568880081177, -0.43348056077957153, -0.4128453731536865, -0.3922102451324463, -0.3715750575065613, -0.35093992948532104, -0.3303048014640808, -0.3096696138381958, -0.28903448581695557, -0.26839935779571533, -0.24776418507099152, -0.2271290272474289, -0.20649388432502747, -0.18585874140262604, -0.16522358357906342, -0.1445884257555008, -0.12395326793193817, -0.10331812500953674, -0.08268298208713531, -0.06204782426357269, -0.041412681341171265, -0.020777538418769836, -0.00014238059520721436, 0.020492762327194214, 0.041127920150756836, 0.06176307797431946, 0.08239820599555969, 0.10303336381912231, 0.12366852164268494, 0.14430367946624756, 0.16493883728981018, 0.18557396531105042, 0.20620912313461304, 0.22684428095817566, 0.24747943878173828, 0.2681145966053009, 0.28874972462654114, 0.30938488245010376, 0.3300200402736664, 0.3506551682949066, 0.37129032611846924, 0.39192548394203186, 0.4125606119632721, 0.4331957697868347, 0.45383092761039734, 0.47446608543395996, 0.4951012134552002, 0.5157363414764404, 0.5363714694976807], "count": [0.00020643479683028654, 0.0, 0.00020643479683028654, 0.0004128695936605731, 0.00020643479683028654, 0.0008257391873211461, 0.0018579158547671652, 0.0008257391873211461, 0.004128695936605731, 0.004748007184404978, 0.015689044559101778, 0.019611305698877222, 0.03406174147699728, 0.07018793229120401, 0.11870000817741476, 0.1967323613792631, 0.3693118515293826, 0.6932080477561022, 1.1952591999002096, 2.0218224001558265, 3.1456534340999065, 4.88260286632811, 7.395526596445016, 8.887018003543837, 7.138112714015449, 4.745309821325076, 3.1452451070258367, 1.9875570944109184, 1.1240358453523749, 0.6042355229892769, 0.31563834849288913, 0.15668423708536425, 0.08278047308462591, 0.04830567269282933, 0.02559795177679205, 0.01197320092386368, 0.007018793229120402, 0.002270786044715424, 0.0028900829816222674, 0.0012386105698447768, 0.0008257403798965178, 0.0006193034960619145, 0.0, 0.0006193052849223884, 0.00041286899737460965, 0.00020643509497412946, 0.00041286899737460965, 0.0, 0.0, 0.00020643449868730483]}
{"mean": -0.003127957694232464, "std": 0.07099873572587967, "min": -0.5526517629623413, "max": 0.6117733716964722, "values": [-0.5410075187683105, -0.517719030380249, -0.4944305121898651, -0.4711419939994812, -0.4478535056114197, -0.42456501722335815, -0.40127646923065186, -0.37798798084259033, -0.3546994924545288, -0.3314110040664673, -0.308122456073761, -0.28483396768569946, -0.26154547929763794, -0.23825697600841522, -0.2149684578180313, -0.1916799545288086, -0.16839146614074707, -0.14510296285152435, -0.12181444466114044, -0.09852594137191772, -0.0752374529838562, -0.05194893479347229, -0.02866041660308838, -0.0053719282150268555, 0.017916560173034668, 0.04120504856109619, 0.0644935667514801, 0.08778208494186401, 0.11107057332992554, 0.13435909152030945, 0.15764760971069336, 0.18093609809875488, 0.2042245864868164, 0.22751307487487793, 0.25080159306526184, 0.27409011125564575, 0.2973785996437073, 0.3206671178340912, 0.3439556360244751, 0.3672441244125366, 0.39053261280059814, 0.41382110118865967, 0.4371095895767212, 0.4603981375694275, 0.4836866855621338, 0.5069751739501953, 0.5302636623382568, 0.5535521507263184, 0.5768406391143799, 0.6001291275024414], "count": [0.0005487450978207467, 0.0003658300652138311, 0.0009145728222734565, 0.0007316601304276622, 0.00018291503260691556, 0.0010974887911830234, 0.0018291479853050387, 0.005304535945600551, 0.008597006532525032, 0.013718609889787792, 0.018108565054519885, 0.03347345096706555, 0.052862444423398595, 0.09365237684761799, 0.1377348432934694, 0.24181367310634239, 0.4000351763113243, 0.6444088352229651, 1.084318925688827, 1.6994635679508523, 2.6098316852354713, 3.7746249520870094, 5.708778167661834, 7.761999408674462, 6.504824389567131, 4.2769192924149, 2.9837023753849246, 2.040234273697536, 1.2365056204227491, 0.7263537354495792, 0.3998522612787174, 0.2094377123349183, 0.11743145093363978, 0.05981321566246139, 0.0400582896155774, 0.020852313717188372, 0.012072392152056428, 0.006036180627004813, 0.00493870588038672, 0.00164623529346224, 0.0003658300652138311, 0.0012804052282484088, 0.0005487450978207467, 0.0005487422889145902, 0.0009145751630345779, 0.0, 0.00018291503260691556, 0.0005487450978207467, 0.0, 0.00018291503260691556]}
{"mean": -0.004688907414674759, "std": 0.08080713450908661, "min": -0.615261435508728, "max": 0.6159323453903198, "values": [-0.6029495000839233, -0.578325629234314, -0.5537017583847046, -0.5290778875350952, -0.5044540166854858, -0.4798301160335541, -0.4552062153816223, -0.43058234453201294, -0.40595847368240356, -0.3813346028327942, -0.3567107319831848, -0.33208686113357544, -0.30746299028396606, -0.2828391194343567, -0.2582152187824249, -0.23359134793281555, -0.20896747708320618, -0.1843436062335968, -0.15971972048282623, -0.13509583473205566, -0.11047196388244629, -0.08584809303283691, -0.06122422218322754, -0.036600351333618164, -0.011976480484008789, 0.012647390365600586, 0.03727129101753235, 0.06189519166946411, 0.08651906251907349, 0.11114293336868286, 0.13576680421829224, 0.1603906750679016, 0.185014545917511, 0.20963841676712036, 0.23426228761672974, 0.2588861584663391, 0.2835100293159485, 0.30813392996788025, 0.332757830619812, 0.3573817014694214, 0.38200557231903076, 0.40662944316864014, 0.4312533140182495, 0.4558771848678589, 0.48050105571746826, 0.5051249265670776, 0.529748797416687, 0.5543726682662964, 0.5789965391159058, 0.6036204099655151], "count": [0.0003459906558871205, 0.0005189859838306809, 0.00017299532794356025, 0.0015569579514920426, 0.0003459902371344129, 0.0020759439353227236, 0.0020759414228064777, 0.004497878526532567, 0.006919813117742412, 0.011590686972218538, 0.017472528122299588, 0.02543031320770336, 0.04272984600205939, 0.07075500349398745, 0.10639212668528956, 0.16624851015376144, 0.2626069078183245, 0.4240115487896662, 0.6566894700811158, 1.0211914208508364, 1.581177297404141, 2.2510152072016063, 3.1561267630023133, 4.571228545580637, 6.831239509835308, 6.526421741998755, 4.210523094808498, 2.9673888602158893, 2.187006935862489, 1.4173507218415893, 0.8789892612812298, 0.5300576848190687, 0.29461104348788314, 0.16607551482581784, 0.09151452848214339, 0.053801546990447244, 0.03062017304601017, 0.01626152146398779, 0.009687738364839375, 0.006919813117742412, 0.0032869112309276455, 0.001902948607379163, 0.001210967295604922, 0.0003459906558871205, 0.0008649766397178015, 0.0005189859838306809, 0.0003459906558871205, 0.0003459906558871205, 0.0003459906558871205, 0.00017299532794356025]}
{"mean": -0.0058269621804356575, "std": 0.08942344784736633, "min": -0.7227262854576111, "max": 0.6463769674301147, "values": [-0.7090352773666382, -0.6816531419754028, -0.654271125793457, -0.6268890500068665, -0.5995069742202759, -0.5721249580383301, -0.5447428226470947, -0.5173608064651489, -0.48997873067855835, -0.46259668469429016, -0.4352146089076996, -0.407832533121109, -0.3804504871368408, -0.35306841135025024, -0.32568633556365967, -0.2983042895793915, -0.2709222137928009, -0.24354015290737152, -0.21615810692310333, -0.18877604603767395, -0.16139397025108337, -0.1340118944644928, -0.10662981867790222, -0.07924774289131165, -0.05186569690704346, -0.02448365092277527, 0.0028984248638153076, 0.030280500650405884, 0.05766257643699646, 0.08504462242126465, 0.11242666840553284, 0.1398087441921234, 0.167190819978714, 0.19457289576530457, 0.22195494174957275, 0.24933698773384094, 0.2767190635204315, 0.3041011095046997, 0.3314831852912903, 0.35886526107788086, 0.38624733686447144, 0.413629412651062, 0.4410114288330078, 0.4683935046195984, 0.49577558040618896, 0.5231576561927795, 0.5505397319793701, 0.5779218077659607, 0.6053038835525513, 0.6326858997344971], "count": [0.0003111389104367423, 0.00015556945521837115, 0.0003111389104367423, 0.0001555697938589612, 0.0003111389104367423, 0.0006222778208734846, 0.0024891112834939384, 0.00264468073871231, 0.0029558260833202625, 0.0046670836565511345, 0.008711889492228784, 0.015090237156182004, 0.02209088668446443, 0.030958321588455864, 0.053827090090314736, 0.07902928325093254, 0.11885506378683557, 0.2011515245282571, 0.31362836306957953, 0.5037338959970858, 0.7826699292036253, 1.208307958681089, 1.7557568715945369, 2.451152336420656, 3.399355565612161, 5.3613901351907245, 6.727912229828898, 4.441507946484497, 3.0161805977737806, 2.2190475396042224, 1.5262919251474396, 0.9701311227417625, 0.5623835806144117, 0.33182964798078574, 0.18108324005183082, 0.09614192332495339, 0.053204753684682936, 0.03251408691652289, 0.017112602823718095, 0.010889885570127284, 0.004978211730536173, 0.003111395877179224, 0.002177977114025457, 0.001088983816054788, 0.0004667093815768836, 0.0006222764663170216, 0.0001555697938589612, 0.000777845582896277, 0.0001555697938589612, 0.00015556945521837115]}
{"mean": -0.006683212239295244, "std": 0.09760548174381256, "min": -0.7822815775871277, "max": 0.6558821797370911, "values": [-0.7678999304771423, -0.7391366958618164, -0.7103734016418457, -0.681610107421875, -0.6528468132019043, -0.6240835189819336, -0.5953202843666077, -0.5665570497512817, -0.537793755531311, -0.5090304613113403, -0.48026716709136963, -0.4515039324760437, -0.422740638256073, -0.3939773440361023, -0.365214079618454, -0.33645081520080566, -0.30768752098083496, -0.27892428636550903, -0.25016099214553833, -0.22139769792556763, -0.1926344335079193, -0.163871169090271, -0.1351078748703003, -0.10634461045265198, -0.07758134603500366, -0.04881805181503296, -0.020054757595062256, 0.00870850682258606, 0.037471771240234375, 0.06623506546020508, 0.0949983298778534, 0.12376159429550171, 0.1525248885154724, 0.18128815293312073, 0.21005144715309143, 0.23881471157073975, 0.2675779461860657, 0.2963412404060364, 0.3251045346260071, 0.3538678288459778, 0.3826311230659485, 0.4113943576812744, 0.44015759229660034, 0.46892088651657104, 0.49768418073654175, 0.5264474749565125, 0.5552107691764832, 0.5839740037918091, 0.612737238407135, 0.6415005326271057], "count": [0.00044429694807805503, 0.00014809928959096585, 0.0, 0.00029619796538537, 0.00029619796538537, 0.001036695027136761, 0.001036692878848795, 0.0026657872126373853, 0.003110078636546385, 0.005479662359629345, 0.006516361990233323, 0.012144129163616648, 0.01762377894042952, 0.027398340186208292, 0.03895003244817616, 0.06531171903847491, 0.09552394281137484, 0.15343070504276643, 0.2342925906198277, 0.3745423272298004, 0.5721075556899011, 0.8579374067387243, 1.2514364037531882, 1.826064240656609, 2.4760668916390007, 3.3560710467989354, 5.484697725040896, 6.0822897242113765, 3.7061770418844424, 2.6380871787047977, 1.9756445231434845, 1.3628068387380876, 0.8757092846618464, 0.5482635700657557, 0.30952623241296306, 0.17727521699915083, 0.09833772450794284, 0.05820290019822521, 0.02887930162507358, 0.01762377894042952, 0.01007073082310258, 0.005627784666639709, 0.00207338575769759, 0.0017771877923122201, 0.0014809898269268502, 0.00059239593077074, 0.00044429694807805503, 0.0005923983859620745, 0.00029619796538537, 0.000148098982692685]}
{"mean": -0.007710304111242294, "std": 0.10439201444387436, "min": -0.8431442379951477, "max": 0.6452288031578064, "values": [-0.8282605409622192, -0.7984930276870728, -0.7687256336212158, -0.7389581203460693, -0.7091906666755676, -0.6794232130050659, -0.6496556997299194, -0.6198883056640625, -0.590120792388916, -0.5603533983230591, -0.5305858850479126, -0.5008184313774109, -0.4710509777069092, -0.44128352403640747, -0.4115160405635834, -0.38174858689308167, -0.35198113322257996, -0.32221367955207825, -0.29244622588157654, -0.26267877221107483, -0.23291128873825073, -0.20314380526542664, -0.17337635159492493, -0.14360889792442322, -0.11384144425392151, -0.0840739905834198, -0.05430653691291809, -0.024539053440093994, 0.0052284300327301025, 0.03499588370323181, 0.06476333737373352, 0.09453079104423523, 0.12429824471473694, 0.15406569838523865, 0.18383318185806274, 0.21360063552856445, 0.24336808919906616, 0.27313554286956787, 0.3029029965400696, 0.3326704502105713, 0.362437903881073, 0.3922054171562195, 0.4219728708267212, 0.4517403244972229, 0.4815077781677246, 0.5112752318382263, 0.541042685508728, 0.5708101391792297, 0.6005776524543762, 0.6303451061248779], "count": [0.0002862061807516539, 0.00014310309037582694, 0.00014310309037582694, 0.00014310280383496648, 0.0002862067538356699, 0.00028620560766993297, 0.0017172370845099235, 0.0018603401748857505, 0.0024327525363890584, 0.004865505072778117, 0.006296523368738525, 0.006868955215041001, 0.0127361750434486, 0.01874648607078818, 0.026044762448400507, 0.04879815381815699, 0.06597052466325623, 0.09988595708232723, 0.15798581177491294, 0.23497527439710786, 0.3689190282865436, 0.5675468564305298, 0.8330030890776887, 1.2062159487778454, 1.690333703519268, 2.3069649199487063, 3.0334993097867797, 4.872936676188279, 6.031365950069979, 3.6767477010261223, 2.583153884374052, 1.9600830288777018, 1.414860254545801, 0.9437648810285788, 0.5817128975891388, 0.3497446531871886, 0.21207835528342034, 0.11405339140351445, 0.072553121544328, 0.03463101721411606, 0.02275334580975967, 0.01259304673747705, 0.005151721569042058, 0.003291364488204229, 0.0015741371460961844, 0.0015741308421846313, 0.0007155168845891747, 0.0007155140191748324, 0.00028620560766993297, 0.0004293101307535048]}
{"mean": -0.00847998633980751, "std": 0.11088152229785919, "min": -0.9020112156867981, "max": 0.6713159680366516, "values": [-0.8862779140472412, -0.854811429977417, -0.8233448266983032, -0.791878342628479, -0.7604117393493652, -0.728945255279541, -0.6974786520004272, -0.666012167930603, -0.6345455646514893, -0.603079080581665, -0.5716124773025513, -0.540145993232727, -0.5086793899536133, -0.4772128760814667, -0.4457463324069977, -0.4142797887325287, -0.3828132450580597, -0.3513467013835907, -0.3198801577091217, -0.2884136140346527, -0.2569470703601837, -0.22548052668571472, -0.19401398301124573, -0.16254743933677673, -0.13108089566230774, -0.09961435198783875, -0.06814780831336975, -0.03668126463890076, -0.005214720964431763, 0.02625182271003723, 0.057718366384506226, 0.08918491005897522, 0.12065142393112183, 0.15211796760559082, 0.1835845708847046, 0.21505111455917358, 0.2465175986289978, 0.2779841423034668, 0.30945074558258057, 0.34091728925704956, 0.3723837733268738, 0.4038503170013428, 0.43531692028045654, 0.46678346395492554, 0.49824994802474976, 0.5297164916992188, 0.5611830949783325, 0.5926496386528015, 0.6241161227226257, 0.6555826663970947], "count": [0.0001353759935294175, 0.0001353759935294175, 0.0001353759935294175, 0.0004061279805882525, 0.0, 0.0006768799676470876, 0.0012183839417647577, 0.0014891359288235926, 0.0023013918900000978, 0.004467407786470777, 0.00433203179294136, 0.0069041756700002925, 0.011506959450000489, 0.016651247204118355, 0.023961550854706897, 0.03749915020764865, 0.05387964542470817, 0.0858283798976507, 0.1290133218335349, 0.20387624625530276, 0.3131246730335427, 0.463662777838255, 0.709776334074736, 1.0166737114059254, 1.4364746673406492, 1.9767602575165546, 2.562938309498932, 3.760068220279571, 5.903611701824368, 4.187856359832531, 2.6660948165683482, 2.048915662067734, 1.4915755220834988, 1.0377904005902658, 0.666184002257331, 0.3994953136384466, 0.24530176493150294, 0.1372709974169749, 0.07445665540368461, 0.04332039998790339, 0.02721062624240182, 0.012048440601687147, 0.0056857809580995525, 0.0033844062490549524, 0.0016245149995463774, 0.0016245088451713008, 0.0010830058967808672, 0.00040612874988659435, 0.0005415049998487924, 0.0004061272112928252]}
{"mean": -0.00912411417812109, "std": 0.11687352508306503, "min": -0.9605187177658081, "max": 0.6654924750328064, "values": [-0.9442585706710815, -0.911738395690918, -0.8792181611061096, -0.8466979265213013, -0.8141777515411377, -0.7816574573516846, -0.749137282371521, -0.7166170477867126, -0.6840968132019043, -0.651576578617096, -0.6190563440322876, -0.586536169052124, -0.5540159344673157, -0.5214956998825073, -0.488975465297699, -0.456455260515213, -0.42393502593040466, -0.3914147913455963, -0.35889458656311035, -0.3263743817806244, -0.29385414719581604, -0.2613339126110077, -0.22881367802619934, -0.196293443441391, -0.16377323865890503, -0.13125303387641907, -0.09873279929161072, -0.06621256470680237, -0.03369233012199402, -0.0011721253395080566, 0.03134810924530029, 0.06386834383010864, 0.09638851881027222, 0.12890875339508057, 0.16142898797988892, 0.19394922256469727, 0.22646945714950562, 0.2589896321296692, 0.29150986671447754, 0.3240301012992859, 0.35655033588409424, 0.3890705704689026, 0.42159074544906616, 0.4541109800338745, 0.48663121461868286, 0.5191514492034912, 0.5516716837882996, 0.5841919183731079, 0.6167121529579163, 0.6492323875427246], "count": [0.00013098966435063776, 0.00013098966435063776, 0.00013098990443521352, 0.00013098966435063776, 0.00013098966435063776, 0.0003929689930519134, 0.0010479173148051021, 0.0006549495221760675, 0.002226820212538016, 0.0032747476108803374, 0.00353672093746722, 0.006025524560129337, 0.008514343788288877, 0.012836963578160328, 0.017814627003189035, 0.02698387085623138, 0.041785702927853455, 0.06077920425869593, 0.09352679176674245, 0.14317170313524707, 0.21665690483595487, 0.33467859241587955, 0.5188500604928762, 0.7389126966019477, 1.053420811467987, 1.4554261605999363, 1.9404808876903479, 2.5384487054510094, 3.8545018631818673, 5.764603714384876, 3.659451545745562, 2.4489872533207517, 1.8732866233279883, 1.4078743320210938, 0.9729930101447659, 0.6303211095725255, 0.39048090512137146, 0.22923233276162364, 0.12850062520587022, 0.07505721524137735, 0.0432265100080909, 0.0242331323205145, 0.012182061112474857, 0.006549471213347106, 0.0030127678020099107, 0.0013098942426694213, 0.0017028687576577757, 0.0010479153941355369, 0.0006549495221760675, 0.0007859379861038267]}
{"mean": -0.009377718903124332, "std": 0.1224302351474762, "min": -1.0236157178878784, "max": 0.6920807957649231, "values": [-1.0064587593078613, -0.9721448421478271, -0.937830924987793, -0.903516948223114, -0.8692030310630798, -0.8348890542984009, -0.8005751371383667, -0.7662612199783325, -0.7319473028182983, -0.6976333856582642, -0.66331946849823, -0.629005491733551, -0.5946915745735168, -0.5603775978088379, -0.5260636806488037, -0.49174976348876953, -0.45743584632873535, -0.42312192916870117, -0.3888079822063446, -0.35449403524398804, -0.32018011808395386, -0.2858661711215973, -0.2515522241592407, -0.21723830699920654, -0.18292438983917236, -0.14861047267913818, -0.11429652571678162, -0.07998257875442505, -0.04566866159439087, -0.011354714632034302, 0.022959232330322266, 0.057273149490356445, 0.09158706665039062, 0.1259009838104248, 0.16021490097045898, 0.19452881813049316, 0.22884279489517212, 0.2631567716598511, 0.29747068881988525, 0.33178460597991943, 0.3660985231399536, 0.4004124402999878, 0.434726357460022, 0.4690403342247009, 0.5033543109893799, 0.5376682281494141, 0.5719821453094482, 0.6062960624694824, 0.6406099796295166, 0.6749238967895508], "count": [0.00012414247528199734, 0.0, 0.000248284519283867, 0.0, 0.00012414247528199734, 0.0, 0.0011172822775379761, 0.0007448548516919842, 0.0011172822775379761, 0.0013655672281019707, 0.00459326360675154, 0.005213983961843889, 0.006827836140509855, 0.012662510483477217, 0.01551780941024967, 0.018124801391171615, 0.03525646298008725, 0.04779485298356898, 0.07460949804480203, 0.12091477092466542, 0.17553746004874424, 0.28192707164683095, 0.421960273483509, 0.6151259650222969, 0.897922523714687, 1.2530941454964812, 1.700748957094489, 2.2051427884341193, 3.070167556199076, 5.340600009795979, 4.233630834541955, 2.489553199305175, 1.9307879180609047, 1.4641363534758767, 1.0393208030608818, 0.6788110548419615, 0.4300280404250715, 0.24282268165158682, 0.14611569340691088, 0.08156160626027226, 0.045063718527365036, 0.02520092248224546, 0.01216596257763574, 0.006455386288136177, 0.0023587070303579495, 0.0019862796045119575, 0.0019862796045119575, 0.0007448548516919842, 0.0008689973269739815, 0.0004965707636912414]}
{"mean": -0.009932170622050762, "std": 0.12777923047542572, "min": -1.0852967500686646, "max": 0.7280965447425842, "values": [-1.0671627521514893, -1.0308949947357178, -0.994627058506012, -0.9583592414855957, -0.9220913648605347, -0.8858234882354736, -0.8495556116104126, -0.8132877945899963, -0.7770199179649353, -0.7407520413398743, -0.7044841647148132, -0.6682162880897522, -0.6319484114646912, -0.5956805944442749, -0.5594127178192139, -0.5231448411941528, -0.4868769645690918, -0.45060908794403076, -0.4143412411212921, -0.37807339429855347, -0.34180551767349243, -0.3055376410484314, -0.26926976442337036, -0.23300188779830933, -0.19673404097557068, -0.16046619415283203, -0.124198317527771, -0.08793047070503235, -0.0516626238822937, -0.015394747257232666, 0.02087312936782837, 0.057141005992889404, 0.09340888261795044, 0.12967675924301147, 0.1659446358680725, 0.20221251249313354, 0.23848038911819458, 0.27474820613861084, 0.3110160231590271, 0.34728389978408813, 0.38355177640914917, 0.4198196530342102, 0.45608752965927124, 0.4923554062843323, 0.5286232829093933, 0.5648911595344543, 0.6011590361595154, 0.6374269127845764, 0.6736947298049927, 0.7099626064300537], "count": [0.00011745420491268916, 0.0, 0.00011745420491268916, 0.00011745439794377666, 0.0, 0.00011745420491268916, 0.0008221807856064367, 0.0007047252294761349, 0.000822179434388824, 0.001644358868777648, 0.0034061719424679855, 0.004815622401420255, 0.0059901644505471465, 0.008926534243727028, 0.014329412999348076, 0.01984976063024447, 0.027131921334831194, 0.042518422178393474, 0.06765373321561537, 0.09701717325788124, 0.15879808504195575, 0.24500947144786958, 0.3720949211633992, 0.5685958059823282, 0.8117273441894406, 1.1349599820713154, 1.5572078487324328, 2.07530175726859, 2.745844402448847, 4.975125211691687, 4.298941354009336, 2.4187344417670076, 1.8919523327335968, 1.3991144889199532, 1.0125727005522933, 0.6558642802324562, 0.4094453583256344, 0.2436008216831842, 0.13883087020679857, 0.07775468365220022, 0.038642433416274734, 0.021846482113760182, 0.011745420491268916, 0.0052854392210710125, 0.0017618130736903373, 0.0025839925080791614, 0.0017618130736903373, 0.000822179434388824, 0.00023490918195099732, 0.00035236203564670835]}
{"mean": -0.010404513217508793, "std": 0.1323796659708023, "min": -1.0901567935943604, "max": 0.7676005363464355, "values": [-1.0715792179107666, -1.034424066543579, -0.9972689151763916, -0.9601137638092041, -0.9229586124420166, -0.8858034610748291, -0.8486483097076416, -0.8114931583404541, -0.7743380069732666, -0.7371828556060791, -0.7000277042388916, -0.6628725528717041, -0.6257174611091614, -0.5885623097419739, -0.5514071583747864, -0.5142520070075989, -0.4770968556404114, -0.4399417042732239, -0.4027865529060364, -0.3656314015388489, -0.3284762501716614, -0.2913210988044739, -0.2541659474372864, -0.21701082587242126, -0.17985570430755615, -0.14270055294036865, -0.10554540157318115, -0.06839025020599365, -0.031235098838806152, 0.005920052528381348, 0.04307520389556885, 0.08023035526275635, 0.11738550662994385, 0.15454065799713135, 0.19169580936431885, 0.22885096073150635, 0.26600611209869385, 0.30316126346588135, 0.34031641483306885, 0.37747156620025635, 0.41462671756744385, 0.45178186893463135, 0.48893702030181885, 0.5260921716690063, 0.5632473230361938, 0.6004024744033813, 0.6375576257705688, 0.6747127175331116, 0.7118678092956543, 0.7490229606628418], "count": [0.00022929873549808657, 0.0, 0.00011464936774904329, 0.0, 0.00011464936774904329, 0.0006878962064942597, 0.0005732468387452164, 0.0009171949419923463, 0.0010318443097413895, 0.0030955329292241688, 0.0040127278712165145, 0.005847127135217787, 0.007566858271436857, 0.012267482349147632, 0.017656002633352666, 0.023961717859550046, 0.03599990147319959, 0.06099346364249103, 0.08346473972130351, 0.1332225653243883, 0.2053370176385365, 0.3175787486648499, 0.46799871915159463, 0.7010820084677798, 0.9655769751824426, 1.3387606672055783, 1.8009122686019718, 2.3238280349053584, 3.731607621495861, 5.190635475470185, 2.780935064120794, 2.028605912951572, 1.5325180987014617, 1.1586465104718313, 0.7821379867839733, 0.4918457876433957, 0.3011838890767367, 0.18103135167573933, 0.1041016259161313, 0.053885202842050346, 0.03095532929224169, 0.015133716542873713, 0.00836940384568016, 0.0030955329292241688, 0.0024076367227299092, 0.0017197405162356493, 0.0014904417807375626, 0.0008025481491539459, 0.0, 0.00022929873549808657]}
{"mean": -0.011408146470785141, "std": 0.13735686242580414, "min": -1.059792160987854, "max": 0.7546287178993225, "values": [-1.0416479110717773, -1.0053595304489136, -0.9690711498260498, -0.9327827095985413, -0.8964942693710327, -0.860205888748169, -0.8239174485206604, -0.7876290082931519, -0.7513406276702881, -0.7150521874427795, -0.678763747215271, -0.6424753665924072, -0.6061869263648987, -0.5698984861373901, -0.5336101055145264, -0.4973216950893402, -0.46103325486183167, -0.4247448444366455, -0.38845643401145935, -0.3521680235862732, -0.31587961316108704, -0.2795911729335785, -0.24330276250839233, -0.20701435208320618, -0.17072591185569763, -0.13443750143051147, -0.09814909100532532, -0.06186065077781677, -0.025572240352630615, 0.010716140270233154, 0.0470045804977417, 0.08329302072525024, 0.11958140134811401, 0.15586984157562256, 0.1921582818031311, 0.22844666242599487, 0.2647351026535034, 0.30102354288101196, 0.33731192350387573, 0.3736003041267395, 0.40988874435424805, 0.4461771845817566, 0.48246556520462036, 0.5187540054321289, 0.5550424456596375, 0.5913308262825012, 0.6276192665100098, 0.6639077067375183, 0.7001960873603821, 0.7364845275878906], "count": [0.00023477567969423907, 0.00011738764703474041, 0.0, 0.0005869391992355977, 0.0009391011762779233, 0.00046955058813896163, 0.00035216351954135857, 0.0017608147055211062, 0.003756404705111693, 0.003286859515719347, 0.00563460705766754, 0.007747584704292866, 0.01244311102379467, 0.017021208820037357, 0.026177488285907657, 0.034981518816352634, 0.051650564695285776, 0.07864985269757008, 0.11304430409445501, 0.18359458152089494, 0.2684655487684513, 0.38937482521423394, 0.5746134760516501, 0.7937752692489146, 1.072688318603458, 1.4561961533035177, 1.8427512831513548, 2.393886285979461, 4.053754273440579, 4.8604435088699836, 2.5449600075545247, 1.938542787235332, 1.5313243708056743, 1.1367801066954806, 0.80528058135124, 0.5312973631480631, 0.3327934327221899, 0.21118072388496803, 0.12102686288238024, 0.0703153160684246, 0.038737859893588245, 0.021247199012328636, 0.010564905586240758, 0.005634597802703745, 0.003756410875107825, 0.001526041918012554, 0.0019955867217909097, 0.0007043270390827171, 0.0007043270390827171, 0.00023477529406948082]}
{"mean": -0.011414235457777977, "std": 0.14176271855831146, "min": -1.1736716032028198, "max": 0.7722803354263306, "values": [-1.1542119979858398, -1.115293025970459, -1.0763740539550781, -1.0374549627304077, -0.9985359311103821, -0.9596168994903564, -0.920697808265686, -0.8817788362503052, -0.8428597450256348, -0.8039407730102539, -0.7650216817855835, -0.7261026501655579, -0.6871836185455322, -0.6482645273208618, -0.609345555305481, -0.5704264640808105, -0.5315074920654297, -0.49258843064308167, -0.45366939902305603, -0.4147503674030304, -0.3758313059806824, -0.33691224455833435, -0.2979932129383087, -0.2590741813182831, -0.22015514969825745, -0.18123608827590942, -0.1423170566558838, -0.10339802503585815, -0.06447899341583252, -0.025559961795806885, 0.01335906982421875, 0.052278101444244385, 0.0911971926689148, 0.13011622428894043, 0.16903525590896606, 0.2079542875289917, 0.24687331914901733, 0.28579235076904297, 0.3247113823890686, 0.36363041400909424, 0.4025494456291199, 0.4414685368537903, 0.4803875684738159, 0.5193066000938416, 0.5582256317138672, 0.5971446633338928, 0.6360636949539185, 0.6749827265739441, 0.7139018177986145, 0.7528208494186401], "count": [0.00010945308533226478, 0.0001094534205884102, 0.00010945308533226478, 0.0, 0.0, 0.0003283597588802423, 0.0008756260236806461, 0.0005472662648004039, 0.0006567195177604846, 0.0021890650592016154, 0.0041592236124830696, 0.003940311071961532, 0.005472662648004038, 0.009084619995686704, 0.013353296861129854, 0.01970158553281454, 0.028020032757780675, 0.0449852869665932, 0.0631545269579666, 0.09599050284599084, 0.14721439977189613, 0.23291652229905188, 0.35156384850777944, 0.49943519325684854, 0.7336651545914215, 0.9986499505715839, 1.3520781045286312, 1.7771897465399833, 2.266342526703622, 3.9863908208864154, 4.611272609389721, 2.3526940692170317, 1.8326824608034415, 1.414685461105202, 1.0303913453179407, 0.7094770722540749, 0.4598124114808444, 0.2739619117327907, 0.1631945502304068, 0.09522447591191688, 0.054507636495467866, 0.0270349120770694, 0.014885665200023789, 0.006676638205268152, 0.003940323141182768, 0.0024079678773098255, 0.0016418013088261533, 0.000547265426661324, 0.0008756246826581183, 0.0002189068411768204]}
{"mean": -0.011810008436441422, "std": 0.1454814225435257, "min": -1.1613240242004395, "max": 0.7962698340415955, "values": [-1.141748070716858, -1.1025961637496948, -1.0634443759918213, -1.0242924690246582, -0.9851405620574951, -0.945988655090332, -0.9068368673324585, -0.8676849603652954, -0.8285330533981323, -0.7893811464309692, -0.7502293586730957, -0.7110774517059326, -0.6719255447387695, -0.6327736377716064, -0.5936218500137329, -0.5544699430465698, -0.5153180360794067, -0.47616615891456604, -0.43701431155204773, -0.39786243438720703, -0.35871052742004395, -0.31955865025520325, -0.28040680289268494, -0.24125492572784424, -0.20210301876068115, -0.16295111179351807, -0.12379926443099976, -0.08464741706848145, -0.04549551010131836, -0.006343662738800049, 0.03280818462371826, 0.07196009159088135, 0.11111199855804443, 0.15026390552520752, 0.18941575288772583, 0.22856760025024414, 0.2677195072174072, 0.30687135457992554, 0.34602320194244385, 0.38517510890960693, 0.42432701587677, 0.4634789228439331, 0.5026307702064514, 0.5417826175689697, 0.5809345245361328, 0.6200863718986511, 0.6592382192611694, 0.6983901262283325, 0.7375420331954956, 0.7766939401626587], "count": [0.00010880222555802397, 0.00010880222555802397, 0.00010880255683883521, 0.0, 0.00021760445111604793, 0.0006528143471890645, 0.0009792215207835968, 0.0006528133533481437, 0.002176044511160479, 0.002828862171152613, 0.00424329325672892, 0.006092924631249342, 0.0066369357590394615, 0.013926706073366709, 0.0168643706357175, 0.024806907427229463, 0.04036562568202689, 0.05309556690471058, 0.08475706274338021, 0.1293658461884905, 0.19758484161337153, 0.29866256383899703, 0.42737579262644093, 0.6295296770787266, 0.8609520108406435, 1.1546092176217504, 1.5288935286993124, 1.9751956027803672, 2.742795304092226, 4.996213410039314, 3.150912452160374, 2.0173020640713224, 1.603200793597483, 1.2111863749119227, 0.8654155370960953, 0.590469678103396, 0.3783053382652493, 0.219889967371286, 0.1386140353609225, 0.07877281130400936, 0.03927760342644665, 0.023283676269417127, 0.011206663354400027, 0.005440111277901198, 0.003264066766740719, 0.001958446023099034, 0.0016320333833703595, 0.0007616155789061678, 0.0005440111277901198, 0.00032640717359453227]}
{"mean": -0.012746581807732582, "std": 0.14976027607917786, "min": -1.1897714138031006, "max": 0.8410378098487854, "values": [-1.1694633960723877, -1.1288471221923828, -1.0882309675216675, -1.0476148128509521, -1.0069985389709473, -0.9663823843002319, -0.9257662296295166, -0.8851500153541565, -0.8445338606834412, -0.803917646408081, -0.7633014917373657, -0.7226852774620056, -0.6820691227912903, -0.6414529085159302, -0.6008367538452148, -0.5602205395698547, -0.5196043848991394, -0.4789882004261017, -0.4383719861507416, -0.39775580167770386, -0.3571396470069885, -0.3165234625339508, -0.2759072482585907, -0.23529106378555298, -0.19467490911483765, -0.15405875444412231, -0.11344254016876221, -0.0728263258934021, -0.03221017122268677, 0.00840604305267334, 0.04902225732803345, 0.08963841199874878, 0.1302545666694641, 0.17087072134017944, 0.21148693561553955, 0.25210314989089966, 0.292719304561615, 0.3333355188369751, 0.3739517331123352, 0.41456788778305054, 0.45518404245376587, 0.4958001971244812, 0.5364164113998413, 0.5770326256752014, 0.6176487803459167, 0.6582649946212769, 0.698881208896637, 0.7394973635673523, 0.7801135182380676, 0.8207297325134277], "count": [0.0002097596213823471, 0.00010487981069117354, 0.0, 0.00010487981069117354, 0.0006292788641470412, 0.0003146389703374402, 0.000734157597454027, 0.0006292788641470412, 0.0025171154565881647, 0.0030415100465952553, 0.00513910318217819, 0.005139110723867504, 0.009019663719440924, 0.013739235038068221, 0.018458819593129824, 0.02936634699352859, 0.03964456844126359, 0.059991163677671926, 0.096489284236815, 0.1411682251903196, 0.2180451264269498, 0.3231342225365511, 0.47594388246376784, 0.6844456445705985, 0.9365767094721796, 1.234120732403039, 1.6366446422484557, 2.05375645295456, 3.440057790670492, 4.744434071220339, 2.3403929755735375, 1.7990033927856997, 1.393013645600167, 1.0311782987156184, 0.7160123660769118, 0.47646897997000137, 0.2909365948573154, 0.17567316730318253, 0.10519445012324706, 0.05600581890908667, 0.029680986425602112, 0.01657101008920542, 0.0072366856978624446, 0.00325127413142638, 0.0030415145100440326, 0.001573192543013575, 0.0010487981069117354, 0.0004195192427646942, 0.0002097596213823471, 0.00020975931355829346]}
{"mean": -0.01282984483987093, "std": 0.15313661098480225, "min": -1.223366141319275, "max": 0.8341583609580994, "values": [-1.2027909755706787, -1.1616404056549072, -1.1204898357391357, -1.0793395042419434, -1.0381889343261719, -0.9970384240150452, -0.9558879733085632, -0.9147374629974365, -0.8735870122909546, -0.8324365019798279, -0.7912859916687012, -0.7501355409622192, -0.7089850306510925, -0.6678345203399658, -0.6266840696334839, -0.585533618927002, -0.5443830490112305, -0.5032325983047485, -0.4620821177959442, -0.4209316372871399, -0.37978115677833557, -0.33863064646720886, -0.29748016595840454, -0.2563296854496002, -0.2151791751384735, -0.1740286946296692, -0.13287824392318726, -0.09172773361206055, -0.05057722330093384, -0.009426772594451904, 0.031723737716674805, 0.07287424802780151, 0.11402469873428345, 0.15517520904541016, 0.19632571935653687, 0.2374761700630188, 0.2786266803741455, 0.3197771906852722, 0.36092764139175415, 0.4020780920982361, 0.4432286024093628, 0.4843791127204895, 0.5255295634269714, 0.5666800737380981, 0.6078305840492249, 0.6489810347557068, 0.6901315450668335, 0.7312820553779602, 0.7724325060844421, 0.8135830163955688], "count": [0.00010351805483863269, 0.00010351775495666754, 0.00010351805483863269, 0.00010351805483863269, 0.0003105532648700026, 0.0007246263838704287, 0.0007246263838704287, 0.0005175895244871647, 0.0018633222881537929, 0.0027949874806430823, 0.0041407161958973175, 0.004865341530179348, 0.0072462638387042885, 0.011283451633820189, 0.01780510543224482, 0.02505133298517877, 0.032918693757383675, 0.051655509364477714, 0.08146859115427971, 0.11945983528378212, 0.18747092576925103, 0.2783596462691972, 0.4015465347190562, 0.5815635897137782, 0.8009180301914386, 1.0886993827379, 1.4358989386666738, 1.8361979374213688, 2.480913702262671, 4.767213461428712, 3.13244726498876, 1.921812688079216, 1.5485265823311063, 1.1667486161166, 0.8368399553155066, 0.5765955654511841, 0.3713181870295665, 0.22473769705467156, 0.13022571298699992, 0.07908779389671539, 0.04316690381693037, 0.022152863735467394, 0.011801058251604126, 0.005382923257746712, 0.003933686083868042, 0.0013457347129022248, 0.0014492485693933456, 0.0007246263838704287, 0.00041407221935453077, 0.00031055281504900953]}
{"mean": -0.01347336731851101, "std": 0.15697051584720612, "min": -1.2552969455718994, "max": 0.8219964504241943, "values": [-1.2345240116119385, -1.1929781436920166, -1.1514322757720947, -1.1098864078521729, -1.068340539932251, -1.026794672012329, -0.9852488040924072, -0.9437029361724854, -0.9021570682525635, -0.8606112003326416, -0.8190653324127197, -0.7775194644927979, -0.735973596572876, -0.6944277286529541, -0.6528818607330322, -0.6113359928131104, -0.5697901248931885, -0.5282442569732666, -0.4866983890533447, -0.44515252113342285, -0.403606653213501, -0.3620607852935791, -0.3205149173736572, -0.27896904945373535, -0.23742318153381348, -0.1958773136138916, -0.15433144569396973, -0.11278557777404785, -0.07123970985412598, -0.0296938419342041, 0.011852025985717773, 0.05339789390563965, 0.09494376182556152, 0.1364896297454834, 0.17803549766540527, 0.21958136558532715, 0.261127233505249, 0.3026731014251709, 0.3442189693450928, 0.38576483726501465, 0.4273107051849365, 0.4688565731048584, 0.5104024410247803, 0.5519483089447021, 0.593494176864624, 0.6350400447845459, 0.6765859127044678, 0.7181317806243896, 0.7596776485443115, 0.8012235164642334], "count": [0.00010253281074976416, 0.00010253281074976416, 0.00010253281074976416, 0.0, 0.00041013124299905663, 0.0007177296752483493, 0.0007177296752483493, 0.00030759843224929253, 0.0012303937289971701, 0.0034861155654919815, 0.003588648376241746, 0.0049215749159886805, 0.007074763941733728, 0.00933048577822854, 0.015379921612464625, 0.020198963717703543, 0.032810499439924534, 0.04306378051490095, 0.07238816438933351, 0.1049935982077585, 0.15646506920414013, 0.23172415229446702, 0.3374354801774738, 0.5037436992135914, 0.6969155146661471, 0.9455575807343252, 1.2380836898034022, 1.613866441201288, 2.0267660700905883, 3.4957536497024595, 4.455665823941752, 2.175131047245497, 1.6850242118616243, 1.3242112508332042, 0.9815465973074924, 0.694352194397403, 0.47708516841865267, 0.29314130593357574, 0.17758682821859154, 0.10868477939475002, 0.06049435834236086, 0.03250290100767524, 0.01794324188120873, 0.009022887345979247, 0.0034861155654919815, 0.002563320268744104, 0.002153189025745048, 0.0009227952967478775, 0.0005126640537488208, 0.0005126640537488208]}
{"mean": -0.013570812530815601, "std": 0.16074436902999878, "min": -1.3032383918762207, "max": 0.8341948986053467, "values": [-1.281864047050476, -1.2391153573989868, -1.1963666677474976, -1.1536180973052979, -1.1108694076538086, -1.0681207180023193, -1.02537202835083, -0.9826233386993408, -0.9398747682571411, -0.8971260786056519, -0.8543773889541626, -0.8116286993026733, -0.7688800096511841, -0.7261313796043396, -0.6833827495574951, -0.6406340599060059, -0.5978853702545166, -0.5551366806030273, -0.5123880505561829, -0.469639390707016, -0.4268907308578491, -0.38414204120635986, -0.341393381357193, -0.29864469170570374, -0.25589603185653687, -0.21314740180969238, -0.17039871215820312, -0.12765002250671387, -0.08490133285522461, -0.04215270280838013, 0.0005959272384643555, 0.04334461688995361, 0.08609330654144287, 0.12884199619293213, 0.1715906262397766, 0.2143392562866211, 0.25708794593811035, 0.2998366355895996, 0.34258532524108887, 0.38533395528793335, 0.42808258533477783, 0.4708312749862671, 0.5135799646377563, 0.5563286542892456, 0.5990773439407349, 0.6418259739875793, 0.6845746636390686, 0.7273234128952026, 0.7700719833374023, 0.812820553779602], "count": [9.964784061444668e-05, 9.964784061444668e-05, 9.964784061444668e-05, 0.0, 0.00019929568122889336, 0.0003985913624577867, 0.0008968305655300202, 0.0006975358568777673, 0.0010961277750936344, 0.0014947176092167003, 0.0029894352184334006, 0.004982392030722335, 0.006776062609669739, 0.008470066452227969, 0.010363389873612542, 0.019032737557359316, 0.028299986734502857, 0.038464120107831165, 0.05929046516559578, 0.09097860533277165, 0.1351224718731897, 0.2038794818971579, 0.2983460507845765, 0.4271896970820714, 0.6138324099222656, 0.8458108711354235, 1.1185470108971642, 1.4597412171610296, 1.8352142805962646, 2.7413197397664817, 4.775622761447358, 2.4617999023799055, 1.7285910911388067, 1.388293715440471, 1.0372372654027373, 0.7541348577701324, 0.5096987047428948, 0.32365618631572285, 0.19600730248861664, 0.12196929703650213, 0.06417320935570367, 0.03587322262120081, 0.021623581413334928, 0.009067953495914648, 0.004284857146421208, 0.0028897954363223542, 0.0022918939429410843, 0.0006975348843011268, 0.0004982419818742584, 0.0003985913624577867]}
{"mean": -0.01405356451869011, "std": 0.1637621372938156, "min": -1.36448335647583, "max": 0.8321802616119385, "values": [-1.3425166606903076, -1.2985835075378418, -1.2546501159667969, -1.210716962814331, -1.1667835712432861, -1.1228504180908203, -1.0789170265197754, -1.0349838733673096, -0.9910505414009094, -0.947117269039154, -0.9031839966773987, -0.8592507243156433, -0.8153174519538879, -0.7713841795921326, -0.7274509072303772, -0.6835176348686218, -0.6395843625068665, -0.5956510901451111, -0.5517178177833557, -0.5077845454216003, -0.46385127305984497, -0.4199180006980896, -0.37598472833633423, -0.33205145597457886, -0.2881181836128235, -0.24418491125106812, -0.20025163888931274, -0.15631836652755737, -0.112385094165802, -0.06845182180404663, -0.02451854944229126, 0.01941472291946411, 0.06334799528121948, 0.10728126764297485, 0.15121454000473022, 0.1951478123664856, 0.23908108472824097, 0.28301435708999634, 0.3269476294517517, 0.3708809018135071, 0.41481417417526245, 0.4587474465370178, 0.5026807188987732, 0.5466139912605286, 0.5905472636222839, 0.6344805359840393, 0.6784137487411499, 0.7223470211029053, 0.7662804126739502, 0.8102136850357056], "count": [9.696101346132108e-05, 0.0, 0.0, 0.00019392202692264217, 0.0, 0.00019392202692264217, 0.0005817660807679265, 0.0006787270942292475, 0.0008726491211518897, 0.0008726491211518897, 0.002133142296149064, 0.003684518511530201, 0.005041972699988696, 0.007272076009599081, 0.009405218305748144, 0.012798853776894383, 0.02152534498841328, 0.029088304038396323, 0.04411726112490109, 0.06845447550369269, 0.09870631170362486, 0.15339232329580993, 0.22533739528411018, 0.3366486387377068, 0.482865847037379, 0.677369640040789, 0.9427519338844249, 1.2226783797472587, 1.5946208273848863, 1.9878946979840049, 3.785357965529975, 3.8749499419682354, 1.9410625284821865, 1.5466251257215327, 1.1935900757088624, 0.8791455090537983, 0.6216170573005294, 0.4015155567433306, 0.25151686891866687, 0.150095648838125, 0.08629530198057575, 0.04644432544797279, 0.02695516174224726, 0.01347758087112363, 0.00630246587498587, 0.002327064323071706, 0.002908838296731014, 0.0011635290043964337, 0.00048480375183184744, 0.0006787289359039032]}
{"mean": -0.014362531714141369, "std": 0.16676640510559082, "min": -1.368848443031311, "max": 0.8413122296333313, "values": [-1.3467469215393066, -1.3025436401367188, -1.2583403587341309, -1.2141371965408325, -1.1699340343475342, -1.1257307529449463, -1.0815274715423584, -1.0373244285583496, -0.9931211471557617, -0.9489178657531738, -0.9047147035598755, -0.8605114817619324, -0.8163082599639893, -0.7721050977706909, -0.727901816368103, -0.6836986541748047, -0.6394953727722168, -0.5952922105789185, -0.5510889291763306, -0.5068857669830322, -0.4626825451850891, -0.4184793531894684, -0.37427613139152527, -0.33007293939590454, -0.2858697175979614, -0.2416664958000183, -0.1974632740020752, -0.15326005220413208, -0.10905683040618896, -0.06485360860824585, -0.020650386810302734, 0.02355283498764038, 0.06775599718093872, 0.11195921897888184, 0.15616244077682495, 0.20036566257476807, 0.24456888437271118, 0.2887721061706543, 0.3329753279685974, 0.3771785497665405, 0.42138177156448364, 0.465584933757782, 0.5097881555557251, 0.5539913773536682, 0.5981945991516113, 0.6423978209495544, 0.6866010427474976, 0.7308042049407959, 0.7750073671340942, 0.8192106485366821], "count": [9.636900170716475e-05, 0.0, 9.636900170716475e-05, 9.636874181514173e-05, 0.0, 0.0006745811927059921, 0.00028910700512149425, 0.00048184500853582375, 0.0013491623854119841, 0.0007709509740878241, 0.0034692793833952084, 0.0035656530631650953, 0.005203919075092813, 0.007131296510312373, 0.011371526867795407, 0.013491642046536922, 0.02370674245320059, 0.03189809655288372, 0.05011181331570857, 0.07073475187255786, 0.10764417490690303, 0.16594719717240414, 0.23745290001904984, 0.35502340228919493, 0.5037194134677457, 0.7036864504657171, 0.9461483071410614, 1.2526042841897274, 1.5949026770405954, 2.0289529619426467, 4.003543009968247, 3.5543778899653575, 1.8632946480080306, 1.50277415986532, 1.1496821903664753, 0.8498759340677349, 0.6050045927175802, 0.3884623982568363, 0.24622279936180594, 0.1522626120679239, 0.08413013849035483, 0.047220810836510724, 0.027946935126391098, 0.014166243250953219, 0.00558938702527822, 0.0024092250426791186, 0.00279469351263911, 0.0010600618776064853, 0.0007709499345211338, 0.0005782132305658681]}
